layers;3;5;7;2

0.09030036268461106; 0.40524345153929897; -0.1519859403424796; 0.233254883707822; 0.49444199829249447; 
0.08106405144291595; 0.33398328948964173; -0.2881378899498377; 0.20561813101145832; 0.4267175384789239; 
0.2981253839261454; 0.014015694102827658; -0.3578807090685142; 0.17967853646399834; 0.4966265972570634; 
0.0; 0.0; 0.0; 0.0; 0.0; 
;;;

-0.2615156628212353; -0.315750183731734; -0.3397423501371116; -0.37293535111675347; -0.3836037660942805; 0.196816897857641; 0.22446542466513797; 
-0.17630989934824326; 0.41539514901521424; 0.10521468990449234; 0.14847972962080613; -0.4727683188075199; -0.18513155726481267; 0.4000578187938264; 
0.057356401208537355; 0.1589313206335855; 0.17963620610167297; -0.15181567723320055; -0.3886204495041762; 0.1729752561825012; 0.43521575867659934; 
-0.39826551323103276; -0.4783220351976214; 0.1429015560078809; -0.46410504717132417; -0.20714848243345085; 0.2151881367335592; -0.1443137686864019; 
0.3482123382171588; -0.1130732528913525; -0.3387043028753337; 0.1698598097444145; 0.048332907782706935; -0.34307949226142476; 0.2459210712446469; 
0.0; 0.0; 0.0; 0.0; 0.0; 0.0; 0.0; 
;;;

-0.11959831457072911; 0.26614106813241956; 
-0.4752835356108711; 0.4504841816144267; 
-0.21357860288919783; 0.003085514570654868; 
-0.25528871471444636; -0.2747661207911386; 
-0.20576214585864783; -0.32468181830021914; 
0.4470551391930543; -0.4149342219392834; 
0.3630933525418083; 0.4232478034266304; 
0.0; 0.0; 